digraph Tree {
node [shape=box, style="filled, rounded", color="black", fontname=helvetica] ;
edge [fontname=helvetica] ;
0 [label=< kw_avg_avg &le; 2816.636<br/>gini = 0.499<br/>samples = 7928<br/>value = [4111, 3817]<br/>class = Perished>, fillcolor="#fdf6f1"] ;
1 [label=< is_weekend &le; 0.5<br/>gini = 0.47<br/>samples = 3773<br/>value = [2348, 1425]<br/>class = Perished>, fillcolor="#f5cdb1"] ;
0 -> 1 [labeldistance=2.5, labelangle=45, headlabel="True"] ;
2 [label=< self_reference_avg_sharess &le; 3003.65<br/>gini = 0.456<br/>samples = 3377<br/>value = [2187, 1190]<br/>class = Perished>, fillcolor="#f3c6a5"] ;
1 -> 2 ;
3 [label=< kw_max_max &le; 654150.0<br/>gini = 0.428<br/>samples = 2347<br/>value = [1619, 728]<br/>class = Perished>, fillcolor="#f1ba92"] ;
2 -> 3 ;
4 [label=< kw_avg_avg &le; 2706.227<br/>gini = 0.498<br/>samples = 519<br/>value = [277, 242]<br/>class = Perished>, fillcolor="#fcefe6"] ;
3 -> 4 ;
5 [label=<gini = 0.494<br/>samples = 490<br/>value = [271, 219]<br/>class = Perished>, fillcolor="#fae7d9"] ;
4 -> 5 ;
6 [label=<gini = 0.328<br/>samples = 29<br/>value = [6, 23]<br/>class = Survived>, fillcolor="#6db7ec"] ;
4 -> 6 ;
7 [label=< data_channel_is_socmed &le; 0.5<br/>gini = 0.39<br/>samples = 1828<br/>value = [1342, 486]<br/>class = Perished>, fillcolor="#eeaf81"] ;
3 -> 7 ;
8 [label=<gini = 0.38<br/>samples = 1773<br/>value = [1320, 453]<br/>class = Perished>, fillcolor="#eeac7d"] ;
7 -> 8 ;
9 [label=<gini = 0.48<br/>samples = 55<br/>value = [22, 33]<br/>class = Survived>, fillcolor="#bddef6"] ;
7 -> 9 ;
10 [label=< kw_min_max &le; 2950.0<br/>gini = 0.495<br/>samples = 1030<br/>value = [568, 462]<br/>class = Perished>, fillcolor="#fae7da"] ;
2 -> 10 ;
11 [label=< data_channel_is_socmed &le; 0.5<br/>gini = 0.5<br/>samples = 827<br/>value = [424, 403]<br/>class = Perished>, fillcolor="#fef9f5"] ;
10 -> 11 ;
12 [label=<gini = 0.498<br/>samples = 774<br/>value = [411, 363]<br/>class = Perished>, fillcolor="#fcf0e8"] ;
11 -> 12 ;
13 [label=<gini = 0.37<br/>samples = 53<br/>value = [13, 40]<br/>class = Survived>, fillcolor="#79bded"] ;
11 -> 13 ;
14 [label=< kw_min_avg &le; 1692.08<br/>gini = 0.412<br/>samples = 203<br/>value = [144, 59]<br/>class = Perished>, fillcolor="#f0b58a"] ;
10 -> 14 ;
15 [label=<gini = 0.255<br/>samples = 100<br/>value = [85, 15]<br/>class = Perished>, fillcolor="#ea975c"] ;
14 -> 15 ;
16 [label=<gini = 0.489<br/>samples = 103<br/>value = [59, 44]<br/>class = Perished>, fillcolor="#f8dfcd"] ;
14 -> 16 ;
17 [label=< LDA_02 &le; 0.708<br/>gini = 0.483<br/>samples = 396<br/>value = [161, 235]<br/>class = Survived>, fillcolor="#c1e0f7"] ;
1 -> 17 ;
18 [label=< self_reference_min_shares &le; 1750.0<br/>gini = 0.458<br/>samples = 293<br/>value = [104, 189]<br/>class = Survived>, fillcolor="#a6d3f3"] ;
17 -> 18 ;
19 [label=< LDA_03 &le; 0.832<br/>gini = 0.482<br/>samples = 205<br/>value = [83, 122]<br/>class = Survived>, fillcolor="#c0e0f7"] ;
18 -> 19 ;
20 [label=<gini = 0.488<br/>samples = 196<br/>value = [83, 113]<br/>class = Survived>, fillcolor="#cae5f8"] ;
19 -> 20 ;
21 [label=<gini = 0.0<br/>samples = 9<br/>value = [0, 9]<br/>class = Survived>, fillcolor="#399de5"] ;
19 -> 21 ;
22 [label=< self_reference_avg_sharess &le; 3208.333<br/>gini = 0.363<br/>samples = 88<br/>value = [21, 67]<br/>class = Survived>, fillcolor="#77bced"] ;
18 -> 22 ;
23 [label=<gini = 0.0<br/>samples = 26<br/>value = [0, 26]<br/>class = Survived>, fillcolor="#399de5"] ;
22 -> 23 ;
24 [label=<gini = 0.448<br/>samples = 62<br/>value = [21, 41]<br/>class = Survived>, fillcolor="#9ecff2"] ;
22 -> 24 ;
25 [label=< num_hrefs &le; 12.5<br/>gini = 0.494<br/>samples = 103<br/>value = [57, 46]<br/>class = Perished>, fillcolor="#fae7d9"] ;
17 -> 25 ;
26 [label=< kw_min_avg &le; 958.8<br/>gini = 0.444<br/>samples = 75<br/>value = [50, 25]<br/>class = Perished>, fillcolor="#f2c09c"] ;
25 -> 26 ;
27 [label=<gini = 0.5<br/>samples = 39<br/>value = [20, 19]<br/>class = Perished>, fillcolor="#fef9f5"] ;
26 -> 27 ;
28 [label=<gini = 0.278<br/>samples = 36<br/>value = [30, 6]<br/>class = Perished>, fillcolor="#ea9a61"] ;
26 -> 28 ;
29 [label=< LDA_04 &le; 0.106<br/>gini = 0.375<br/>samples = 28<br/>value = [7, 21]<br/>class = Survived>, fillcolor="#7bbeee"] ;
25 -> 29 ;
30 [label=<gini = 0.227<br/>samples = 23<br/>value = [3, 20]<br/>class = Survived>, fillcolor="#57ace9"] ;
29 -> 30 ;
31 [label=<gini = 0.32<br/>samples = 5<br/>value = [4, 1]<br/>class = Perished>, fillcolor="#eca06a"] ;
29 -> 31 ;
32 [label=< data_channel_is_entertainment &le; 0.5<br/>gini = 0.489<br/>samples = 4155<br/>value = [1763, 2392]<br/>class = Survived>, fillcolor="#cbe5f8"] ;
0 -> 32 [labeldistance=2.5, labelangle=-45, headlabel="False"] ;
33 [label=< kw_min_avg &le; 2223.629<br/>gini = 0.473<br/>samples = 3333<br/>value = [1279, 2054]<br/>class = Survived>, fillcolor="#b4daf5"] ;
32 -> 33 ;
34 [label=< is_weekend &le; 0.5<br/>gini = 0.491<br/>samples = 2074<br/>value = [898, 1176]<br/>class = Survived>, fillcolor="#d0e8f9"] ;
33 -> 34 ;
35 [label=< LDA_02 &le; 0.522<br/>gini = 0.497<br/>samples = 1774<br/>value = [824, 950]<br/>class = Survived>, fillcolor="#e5f2fc"] ;
34 -> 35 ;
36 [label=<gini = 0.493<br/>samples = 1556<br/>value = [684, 872]<br/>class = Survived>, fillcolor="#d4eaf9"] ;
35 -> 36 ;
37 [label=<gini = 0.46<br/>samples = 218<br/>value = [140, 78]<br/>class = Perished>, fillcolor="#f3c7a7"] ;
35 -> 37 ;
38 [label=< LDA_01 &le; 0.678<br/>gini = 0.372<br/>samples = 300<br/>value = [74, 226]<br/>class = Survived>, fillcolor="#7abdee"] ;
34 -> 38 ;
39 [label=<gini = 0.346<br/>samples = 288<br/>value = [64, 224]<br/>class = Survived>, fillcolor="#72b9ec"] ;
38 -> 39 ;
40 [label=<gini = 0.278<br/>samples = 12<br/>value = [10, 2]<br/>class = Perished>, fillcolor="#ea9a61"] ;
38 -> 40 ;
41 [label=< self_reference_max_shares &le; 2950.0<br/>gini = 0.422<br/>samples = 1259<br/>value = [381, 878]<br/>class = Survived>, fillcolor="#8fc8f0"] ;
33 -> 41 ;
42 [label=< kw_avg_min &le; 157.616<br/>gini = 0.469<br/>samples = 498<br/>value = [187, 311]<br/>class = Survived>, fillcolor="#b0d8f5"] ;
41 -> 42 ;
43 [label=<gini = 0.5<br/>samples = 179<br/>value = [90, 89]<br/>class = Perished>, fillcolor="#fffefd"] ;
42 -> 43 ;
44 [label=<gini = 0.423<br/>samples = 319<br/>value = [97, 222]<br/>class = Survived>, fillcolor="#90c8f0"] ;
42 -> 44 ;
45 [label=< LDA_01 &le; 0.21<br/>gini = 0.38<br/>samples = 761<br/>value = [194, 567]<br/>class = Survived>, fillcolor="#7dbfee"] ;
41 -> 45 ;
46 [label=<gini = 0.356<br/>samples = 686<br/>value = [159, 527]<br/>class = Survived>, fillcolor="#75bbed"] ;
45 -> 46 ;
47 [label=<gini = 0.498<br/>samples = 75<br/>value = [35, 40]<br/>class = Survived>, fillcolor="#e6f3fc"] ;
45 -> 47 ;
48 [label=< is_weekend &le; 0.5<br/>gini = 0.484<br/>samples = 822<br/>value = [484, 338]<br/>class = Perished>, fillcolor="#f7d9c3"] ;
32 -> 48 ;
49 [label=< kw_avg_avg &le; 4034.109<br/>gini = 0.467<br/>samples = 704<br/>value = [442, 262]<br/>class = Perished>, fillcolor="#f4ccae"] ;
48 -> 49 ;
50 [label=< weekday_is_thursday &le; 0.5<br/>gini = 0.439<br/>samples = 546<br/>value = [368, 178]<br/>class = Perished>, fillcolor="#f2be99"] ;
49 -> 50 ;
51 [label=<gini = 0.416<br/>samples = 454<br/>value = [320, 134]<br/>class = Perished>, fillcolor="#f0b68c"] ;
50 -> 51 ;
52 [label=<gini = 0.499<br/>samples = 92<br/>value = [48, 44]<br/>class = Perished>, fillcolor="#fdf5ef"] ;
50 -> 52 ;
53 [label=< self_reference_min_shares &le; 2750.0<br/>gini = 0.498<br/>samples = 158<br/>value = [74, 84]<br/>class = Survived>, fillcolor="#e7f3fc"] ;
49 -> 53 ;
54 [label=<gini = 0.493<br/>samples = 109<br/>value = [61, 48]<br/>class = Perished>, fillcolor="#f9e4d5"] ;
53 -> 54 ;
55 [label=<gini = 0.39<br/>samples = 49<br/>value = [13, 36]<br/>class = Survived>, fillcolor="#80c0ee"] ;
53 -> 55 ;
56 [label=< title_subjectivity &le; 0.05<br/>gini = 0.458<br/>samples = 118<br/>value = [42, 76]<br/>class = Survived>, fillcolor="#a6d3f3"] ;
48 -> 56 ;
57 [label=< n_unique_tokens &le; 0.496<br/>gini = 0.497<br/>samples = 37<br/>value = [20, 17]<br/>class = Perished>, fillcolor="#fbece1"] ;
56 -> 57 ;
58 [label=<gini = 0.291<br/>samples = 17<br/>value = [14, 3]<br/>class = Perished>, fillcolor="#eb9c63"] ;
57 -> 58 ;
59 [label=<gini = 0.42<br/>samples = 20<br/>value = [6, 14]<br/>class = Survived>, fillcolor="#8ec7f0"] ;
57 -> 59 ;
60 [label=< num_hrefs &le; 13.5<br/>gini = 0.396<br/>samples = 81<br/>value = [22, 59]<br/>class = Survived>, fillcolor="#83c2ef"] ;
56 -> 60 ;
61 [label=<gini = 0.473<br/>samples = 52<br/>value = [20, 32]<br/>class = Survived>, fillcolor="#b5daf5"] ;
60 -> 61 ;
62 [label=<gini = 0.128<br/>samples = 29<br/>value = [2, 27]<br/>class = Survived>, fillcolor="#48a4e7"] ;
60 -> 62 ;
}